#ifndef MODEL_WEIGHTS_H
#define MODEL_WEIGHTS_H

// Auto-generated from attack_multiclass.h5

const float norm_mean[36] = { 13.461958f, 4.794599f, 67.586060f, 24097.019531f, 0.000733f, 0.162189f, 0.017250f, 0.010994f, 0.157008f, 0.000043f, 0.000024f, 11.485189f, 16.173500f, 0.047657f, 1.712344f, 0.051404f, 0.089947f, 0.002703f, 0.000210f, 0.633772f, 0.013009f, 0.000225f, 0.004483f, 0.253724f, 0.000032f, 0.995519f, 0.995519f, 23170.982422f, 76.707397f, 520.359741f, 266.036652f, 163.398285f, 266.036652f, 0.001256f, 94.805420f, 125184.625000f };
const float norm_var[36] = { 82.847557f, 5.585395f, 320.586914f, 1125271040.000000f, 0.000046f, 0.130208f, 0.007381f, 0.002759f, 0.069788f, 0.000003f, 0.000002f, 404.738464f, 1302.308838f, 0.094856f, 73.469833f, 0.043758f, 0.070416f, 0.000353f, 0.000032f, 0.173606f, 0.004281f, 0.000020f, 0.000372f, 0.187717f, 0.000002f, 0.000372f, 0.000372f, 1116399488.000000f, 9107.799805f, 879133.250000f, 146817.531250f, 98487.468750f, 146817.531250f, 0.039959f, 437.622894f, 430942355456.000000f };

const float W1_base[36][64] = {
    { -0.065941f, -0.119227f, 0.023869f, -0.139538f, -0.216522f, -0.119322f, 0.027659f, -0.112444f, -0.220514f, 0.380889f, 0.396412f, -0.037019f, 0.163123f, -0.122739f, -0.145486f, 0.220693f, 0.348034f, 0.253480f, 0.013750f, 0.086785f, -0.041980f, 0.272638f, -0.148617f, -0.221077f, -0.250231f, -0.290961f, 0.143484f, 0.237577f, -0.221528f, -0.095866f, -0.227223f, 0.327611f, 0.188955f, 0.181317f, 0.121867f, 0.056076f, -0.138902f, -0.244323f, -0.203728f, 0.123609f, -0.194787f, 0.213698f, 0.065165f, 0.319629f, 0.140786f, -0.109204f, 0.061263f, -0.015055f, -0.245199f, -0.032800f, 0.336125f, 0.182142f, 0.314697f, -0.198903f, 0.068615f, -0.071329f, 0.260103f, 0.036795f, -0.052613f, -0.232765f, -0.304707f, -0.029385f, 0.328763f, -0.192304f },
    { -0.103420f, -0.020118f, -0.286006f, -0.241074f, 0.231781f, 0.270044f, -0.049738f, -0.254370f, -0.197329f, 0.181315f, -0.041037f, 0.235239f, -0.080349f, 0.173503f, -0.240978f, 0.024117f, 0.116944f, 0.062139f, -0.046515f, 0.319168f, -0.008806f, 0.077724f, 0.222349f, -0.269274f, -0.026665f, -0.017557f, -0.040488f, -0.003680f, -0.169400f, 0.133994f, 0.018247f, -0.074597f, 0.220186f, 0.146212f, -0.177200f, -0.075491f, 0.211315f, -0.131990f, -0.042653f, 0.022076f, 0.261376f, 0.090727f, 0.173892f, 0.005166f, 0.153140f, -0.197214f, 0.148077f, 0.059932f, -0.193783f, -0.295419f, 0.027524f, -0.004925f, 0.129108f, 0.158783f, -0.121778f, 0.127765f, 0.000892f, 0.182855f, 0.106017f, 0.167312f, -0.109524f, 0.121793f, 0.052139f, 0.203776f },
    { -0.332496f, 0.147895f, 0.086784f, -0.224661f, 0.087703f, 0.146709f, 0.147937f, -0.156521f, 0.150026f, 0.126709f, -0.216403f, 0.040850f, 0.085501f, -0.218279f, 0.223343f, 0.033466f, 0.158379f, -0.191049f, -0.040374f, 0.191227f, -0.093460f, -0.353055f, 0.080338f, -0.314076f, -0.013415f, 0.059683f, -0.097867f, 0.149590f, -0.363019f, -0.071342f, -0.003393f, 0.119774f, 0.108446f, 0.130587f, 0.248796f, -0.015931f, 0.052950f, -0.119311f, -0.219576f, -0.036208f, -0.015785f, 0.190574f, -0.304758f, 0.207041f, 0.063937f, -0.187597f, 0.173692f, 0.147448f, -0.066060f, 0.036006f, -0.108696f, 0.211254f, 0.113593f, 0.063093f, -0.128892f, 0.060510f, 0.099291f, 0.270659f, -0.241415f, 0.123160f, -0.237844f, -0.064575f, -0.040840f, 0.011536f },
    { 0.141417f, 0.020739f, 0.036923f, -0.043804f, 0.064193f, 0.057808f, -0.296637f, 0.244826f, -0.089580f, -0.261978f, 0.221084f, 0.101511f, -0.353874f, 0.152905f, 0.274486f, 0.119324f, 0.041944f, -0.028427f, 0.089138f, -0.016842f, 0.040179f, 0.051691f, 0.025101f, 0.165667f, -0.018203f, 0.265593f, -0.785744f, 0.025765f, -0.086203f, 0.102640f, 0.214115f, -0.136007f, 0.079711f, -0.096542f, -0.284243f, 0.050119f, -0.271282f, -0.008094f, 0.090406f, 0.155243f, -0.065893f, 0.092107f, -0.147226f, 0.197405f, 0.191744f, 0.018654f, 0.043757f, 0.195419f, -0.054460f, 0.085836f, 0.131638f, -0.047717f, -0.088764f, 0.045618f, 0.213441f, 0.009934f, -0.104019f, 0.002458f, 0.073562f, 0.061803f, 0.035928f, 0.245380f, 0.063406f, -0.168495f },
    { 0.109646f, 0.170628f, 0.158411f, -0.037483f, -0.196512f, -0.089668f, -0.064944f, 0.044631f, 0.144322f, 0.251852f, 0.082809f, -0.106202f, 0.186861f, -0.151979f, -0.166701f, -0.157696f, 0.171920f, -0.150338f, 0.242986f, 0.038544f, 0.086119f, -0.094461f, 0.024479f, -0.260998f, -0.193074f, 0.048838f, 0.046001f, 0.038964f, 0.097584f, 0.073676f, 0.118582f, -0.030331f, -0.053296f, -0.126737f, -0.303965f, -0.334888f, 0.098186f, -0.057941f, 0.118902f, -0.108416f, -0.020453f, -0.044564f, 0.171499f, -0.175082f, -0.020272f, 0.054290f, -0.026907f, 0.060101f, -0.098342f, 0.017815f, -0.165229f, 0.167325f, -0.289333f, -0.018988f, 0.111673f, -0.024894f, 0.140744f, -0.068185f, 0.089271f, 0.109468f, 0.050030f, -0.328108f, -0.234295f, -0.087883f },
    { 0.149181f, 0.354228f, -0.293700f, 0.031601f, 0.050402f, 0.352990f, -0.474380f, -0.123478f, -0.350893f, 0.144028f, -0.014222f, -0.047561f, 0.025903f, 0.165740f, 0.317356f, 0.084724f, -0.375523f, 0.340607f, 0.123788f, 0.161239f, -0.044725f, -0.248096f, -0.205088f, -0.147808f, -0.198110f, -0.274400f, 0.092629f, 0.220828f, 0.375325f, -0.068196f, -0.263584f, 0.363917f, 0.012403f, -0.117184f, 0.140395f, 0.195451f, -0.251616f, -0.347214f, -0.011847f, 0.341261f, -0.273793f, 0.108647f, 0.082375f, 0.157425f, -0.115529f, 0.100322f, 0.050213f, -0.294401f, 0.170807f, -0.270239f, 0.233247f, -0.081058f, -0.100299f, 0.173594f, -0.104501f, 0.166156f, -0.376193f, -0.282452f, -0.124811f, -0.171620f, -0.216788f, 0.180559f, -0.158964f, -0.332063f },
    { 0.031088f, 0.005419f, 0.022963f, 0.035947f, 0.193137f, 0.154278f, 0.224735f, 0.096553f, -0.081424f, 0.124961f, 0.008292f, 0.116364f, 0.271906f, 0.236366f, 0.114630f, 0.047410f, -0.270408f, 0.042960f, 0.224469f, -0.195486f, -0.235039f, -0.278678f, 0.177901f, 0.227850f, -0.251867f, 0.099580f, 0.013003f, 0.025535f, 0.039120f, -0.036682f, -0.226073f, 0.214861f, -0.046213f, -0.258582f, -0.067764f, -0.119644f, 0.027877f, 0.072096f, -0.005067f, 0.245065f, -0.164225f, -0.025734f, -0.199608f, -0.149028f, 0.047569f, 0.017429f, 0.288490f, 0.082881f, 0.156702f, -0.162003f, -0.103715f, -0.028307f, 0.110229f, 0.179736f, 0.164463f, -0.152258f, 0.073517f, 0.057531f, -0.474905f, 0.092981f, 0.241227f, 0.099332f, -0.192755f, 0.161160f },
    { -0.152272f, -0.018929f, 0.127776f, 0.191740f, 0.055894f, 0.193680f, 0.017769f, 0.217435f, -0.126248f, 0.099855f, -0.080232f, -0.204317f, -0.046552f, 0.154938f, -0.028914f, 0.042847f, 0.199150f, -0.324448f, -0.196098f, -0.034373f, 0.008101f, 0.147188f, 0.264784f, -0.302530f, 0.056609f, -0.217399f, 0.163934f, 0.096359f, -0.071740f, -0.113957f, 0.046706f, -0.088194f, 0.135751f, 0.093900f, 0.167468f, -0.184007f, 0.223688f, -0.301735f, -0.168647f, -0.179427f, 0.115817f, 0.244547f, -0.225049f, -0.056115f, 0.158473f, 0.134951f, -0.067808f, -0.199521f, -0.362735f, 0.013364f, -0.214612f, 0.093425f, -0.248749f, -0.080741f, -0.159798f, 0.111616f, 0.078109f, -0.088089f, 0.118773f, 0.010604f, 0.059824f, -0.037115f, 0.116239f, -0.234471f },
    { 0.302926f, 0.059812f, 0.203207f, -0.057681f, -0.117868f, -0.139800f, 0.065537f, -0.109551f, 0.456935f, -0.047200f, 0.128678f, -0.086062f, -0.181842f, -0.037859f, 0.114235f, -0.211649f, -0.073214f, -0.028449f, -0.061509f, -0.146643f, -0.318924f, -0.316672f, 0.076697f, 0.105077f, -0.106166f, -0.033822f, -0.162815f, 0.196262f, 0.024674f, 0.124699f, -0.351991f, 0.006641f, -0.232157f, -0.055969f, 0.178390f, -0.104009f, 0.211360f, 0.140645f, -0.135916f, -0.207979f, 0.186383f, 0.019751f, -0.226664f, 0.162761f, -0.164678f, -0.300715f, 0.001848f, 0.123324f, -0.381388f, -0.322327f, -0.200079f, 0.084237f, -0.024607f, 0.174589f, -0.243502f, -0.030507f, 0.121962f, -0.068499f, -0.288725f, -0.041897f, 0.272575f, -0.066570f, 0.185658f, 0.080273f },
    { 0.024761f, -0.324560f, 0.213902f, -0.193563f, 0.087621f, 0.025938f, -0.123259f, -0.027632f, 0.090803f, -0.262350f, 0.167160f, -0.000421f, -0.026901f, 0.246980f, -0.287947f, -0.132369f, 0.174901f, 0.139112f, -0.103717f, -0.104271f, 0.119337f, -0.171004f, 0.133998f, 0.138509f, -0.253940f, 0.046537f, -0.050708f, -0.085268f, -0.191185f, 0.021490f, -0.188356f, -0.049277f, -0.160096f, -0.322773f, -0.251778f, -0.236631f, 0.017810f, 0.133063f, 0.049986f, 0.072092f, -0.329157f, -0.012864f, 0.047928f, -0.168940f, 0.046622f, 0.111228f, -0.127008f, 0.019460f, 0.048309f, -0.096443f, 0.142054f, 0.187851f, -0.321345f, 0.159480f, -0.201844f, 0.176738f, 0.001731f, 0.018584f, -0.348362f, -0.160857f, 0.118276f, 0.020352f, 0.177577f, -0.122149f },
    { -0.353782f, 0.051806f, 0.195863f, 0.005636f, 0.041498f, -0.030582f, -0.184688f, -0.145808f, -0.038281f, -0.193650f, -0.143987f, -0.035402f, 0.246115f, 0.012465f, -0.276584f, 0.159396f, 0.040660f, -0.072367f, 0.064600f, -0.010313f, -0.004770f, 0.144849f, 0.109806f, -0.175294f, -0.099593f, 0.123338f, -0.021501f, -0.169926f, -0.255444f, -0.171189f, -0.131858f, 0.150973f, 0.095593f, -0.259822f, -0.096709f, -0.162380f, -0.230026f, 0.147238f, 0.075932f, 0.156993f, -0.288932f, -0.126789f, -0.279508f, -0.284119f, -0.064453f, -0.023021f, -0.026479f, -0.174991f, 0.013640f, -0.309548f, -0.089747f, -0.010866f, -0.041438f, -0.166764f, 0.235846f, -0.079578f, -0.375961f, -0.120983f, -0.185216f, 0.256157f, -0.075859f, -0.132427f, 0.131002f, -0.233439f },
    { 0.218715f, -0.277474f, -0.234278f, 0.008793f, -0.038779f, 0.109926f, 0.256173f, -0.033000f, 0.248230f, 0.139733f, 0.034231f, 0.184043f, -0.042861f, -0.343729f, -0.031117f, 0.344983f, -0.274962f, -0.166655f, 0.186440f, 0.155970f, 0.003187f, -0.107376f, 0.220253f, 0.089709f, 0.073543f, 0.315059f, -0.097011f, -0.071320f, -0.187432f, -0.015808f, -0.321498f, 0.246679f, 0.300018f, -0.260245f, 0.005715f, -0.098694f, -0.174715f, -0.142928f, -0.205088f, 0.184716f, -0.124589f, -0.157983f, 0.165821f, -0.006993f, -0.217030f, -0.306109f, 0.006208f, 0.288059f, 0.104170f, -0.099178f, -0.095377f, -0.089973f, -0.119808f, -0.219477f, 0.180784f, -0.235438f, 0.091725f, 0.182194f, -0.075295f, 0.232420f, 0.111270f, -0.264230f, -0.199922f, -0.216448f },
    { 0.167745f, 0.318165f, -0.259001f, 0.081402f, 0.020301f, 0.246910f, -0.416365f, -0.156964f, -0.250631f, 0.158308f, 0.151071f, -0.170537f, 0.000676f, 0.284208f, 0.255347f, 0.360148f, -0.333663f, 0.018816f, 0.130170f, 0.315301f, -0.307368f, 0.134053f, 0.240043f, -0.068819f, -0.138480f, -0.147168f, -0.268446f, 0.241269f, 0.150317f, 0.262875f, -0.326145f, 0.336520f, 0.121305f, -0.037818f, -0.197876f, -0.179975f, -0.338189f, -0.031197f, 0.113480f, 0.217188f, -0.301700f, 0.053873f, 0.121642f, 0.056816f, 0.191016f, 0.046726f, 0.021538f, -0.425956f, 0.229955f, -0.057291f, 0.216223f, -0.368109f, -0.198421f, 0.051943f, -0.405950f, 0.214495f, -0.076981f, -0.016668f, 0.250073f, 0.020418f, -0.249315f, -0.016004f, -0.022736f, 0.035418f },
    { -0.025336f, -0.091242f, -0.253335f, 0.038737f, 0.009807f, 0.030756f, 0.017593f, 0.031914f, -0.039173f, -0.051291f, 0.030696f, 0.092335f, -0.220576f, 0.058885f, -0.063714f, -0.047223f, -0.058525f, 0.140592f, -0.255091f, 0.032760f, -0.259961f, 0.105408f, -0.107872f, -0.082639f, -0.002136f, -0.099272f, -0.174460f, -0.007982f, 0.073596f, 0.012571f, -0.026729f, -0.025014f, 0.134734f, 0.122756f, -0.069152f, -0.362580f, 0.026895f, 0.110879f, -0.017470f, 0.004251f, -0.021540f, -0.237688f, -0.207377f, -0.156257f, -0.124036f, 0.133931f, 0.001098f, -0.138843f, 0.072867f, -0.081218f, -0.123758f, -0.180039f, 0.145898f, -0.166629f, 0.055897f, -0.188192f, -0.416445f, 0.062291f, 0.073997f, -0.267756f, 0.091774f, -0.100201f, 0.050749f, 0.062046f },
    { -0.149708f, -0.253370f, 0.122826f, 0.224345f, -0.078152f, -0.191717f, -0.118990f, -0.137631f, -0.107733f, 0.047723f, -0.057393f, -0.021844f, -0.030570f, 0.143785f, 0.075528f, -0.075996f, -0.352041f, 0.166017f, -0.003890f, 0.008787f, -0.235077f, 0.061820f, 0.230884f, -0.194749f, 0.118371f, 0.062241f, 0.093686f, 0.192598f, 0.074291f, 0.226124f, 0.023364f, 0.001595f, 0.192029f, -0.281415f, 0.168805f, -0.441107f, 0.069391f, -0.194287f, 0.034118f, 0.050099f, 0.045862f, -0.172040f, -0.088518f, -0.177921f, 0.152385f, -0.306586f, -0.066154f, 0.156199f, 0.238951f, -0.227766f, -0.260452f, 0.289315f, -0.113325f, -0.194348f, -0.035834f, -0.167869f, 0.008227f, 0.202371f, -0.480044f, 0.024708f, 0.240487f, 0.033644f, -0.146911f, -0.041070f },
    { -0.381912f, 0.015632f, 0.135170f, -0.316906f, -0.117815f, 0.050141f, 0.039128f, -0.044046f, -0.363325f, 0.051796f, 0.237848f, 0.226215f, 0.024569f, 0.103153f, -0.032213f, 0.018809f, 0.045090f, -0.208836f, -0.169279f, 0.104307f, -0.072188f, 0.033872f, -0.271289f, 0.206746f, -0.139294f, -0.180344f, 0.032272f, -0.083710f, -0.047418f, -0.013761f, 0.028184f, -0.096381f, 0.145452f, -0.021623f, -0.263993f, 0.063214f, -0.106987f, -0.050433f, -0.106437f, 0.154584f, -0.334811f, 0.297476f, 0.211560f, -0.169752f, 0.045489f, 0.064852f, 0.109335f, -0.034362f, -0.300070f, -0.191676f, -0.147451f, 0.114028f, 0.051562f, -0.253910f, 0.095660f, -0.015857f, -0.081388f, 0.214275f, 0.163205f, -0.106081f, -0.272074f, 0.078746f, 0.135530f, -0.054861f },
    { -0.233938f, 0.332557f, -0.019214f, 0.058809f, -0.158791f, -0.045611f, -0.056040f, -0.029128f, 0.168021f, 0.251375f, -0.143463f, -0.342106f, 0.246508f, 0.056430f, 0.155899f, 0.025473f, -0.032418f, -0.258730f, -0.045788f, 0.086748f, 0.239653f, -0.099201f, -0.023530f, 0.051364f, 0.343035f, 0.085874f, 0.247117f, -0.087453f, -0.047491f, -0.047561f, -0.236191f, -0.062632f, 0.299118f, 0.259793f, -0.185771f, -0.254583f, 0.086137f, -0.244123f, 0.199548f, 0.144962f, -0.278764f, 0.069351f, -0.109842f, -0.245191f, 0.090326f, 0.228997f, -0.190401f, -0.459491f, -0.103664f, 0.190823f, -0.003931f, 0.361167f, -0.154846f, -0.131982f, 0.304617f, 0.401019f, 0.190410f, 0.006632f, -0.305396f, 0.074486f, -0.277351f, -0.186489f, 0.158810f, 0.197749f },
    { 0.090729f, -0.347423f, -0.253426f, -0.107338f, 0.246050f, 0.067644f, -0.129868f, 0.150684f, -0.162453f, -0.070599f, -0.050163f, -0.119214f, 0.135047f, -0.313769f, -0.025146f, -0.241673f, -0.233821f, -0.001412f, 0.052275f, -0.111021f, -0.038050f, 0.104040f, -0.099544f, -0.283407f, 0.023553f, 0.007308f, 0.147827f, 0.152943f, -0.265397f, 0.053612f, 0.067104f, -0.032652f, 0.124049f, -0.264170f, -0.018258f, -0.168826f, 0.218960f, -0.048296f, -0.062398f, -0.053720f, -0.179714f, 0.013180f, -0.212332f, -0.168985f, 0.110368f, 0.185756f, -0.070799f, -0.302708f, -0.039408f, 0.077567f, 0.102478f, 0.052489f, -0.204942f, 0.146137f, -0.268288f, 0.058531f, 0.021173f, 0.072067f, 0.124834f, 0.260473f, 0.145536f, -0.206867f, 0.030613f, -0.213300f },
    { -0.262883f, -0.215789f, -0.313861f, 0.103200f, 0.046723f, 0.159918f, 0.110874f, 0.047060f, 0.097618f, 0.011427f, 0.212206f, -0.417575f, 0.081899f, -0.143462f, 0.080564f, -0.207787f, -0.113941f, -0.252435f, -0.323484f, 0.104202f, 0.085763f, 0.039419f, -0.326277f, 0.130408f, 0.041542f, 0.050377f, -0.216878f, -0.100293f, 0.173970f, 0.067766f, -0.300568f, -0.014692f, -0.001586f, 0.104786f, 0.187947f, 0.103375f, -0.157503f, -0.008175f, 0.050496f, 0.089493f, -0.052044f, 0.053969f, 0.007494f, -0.195411f, 0.206948f, 0.133627f, 0.031963f, -0.220388f, -0.093742f, -0.070235f, 0.035039f, -0.043497f, 0.072058f, 0.018677f, -0.072265f, 0.166021f, 0.211128f, -0.069351f, -0.109044f, 0.213184f, -0.013713f, 0.115566f, 0.311331f, -0.308476f },
    { -0.020501f, 0.237788f, -0.230542f, -0.220520f, 0.121600f, -0.165602f, -0.157590f, -0.287095f, -0.338385f, 0.203624f, 0.190666f, -0.117743f, -0.141506f, 0.116990f, -0.106177f, 0.022836f, 0.052832f, -0.098298f, -0.214059f, -0.180262f, 0.129447f, 0.120903f, -0.166388f, -0.274358f, -0.355088f, 0.033657f, 0.116457f, 0.088455f, -0.248927f, 0.418409f, -0.055786f, -0.081859f, -0.034008f, 0.335816f, 0.104971f, 0.141638f, -0.093193f, 0.046655f, -0.213451f, -0.119853f, 0.166523f, -0.040715f, 0.246350f, 0.303708f, -0.057387f, -0.228844f, 0.077543f, 0.258046f, -0.325967f, -0.033531f, 0.353470f, -0.050723f, 0.341184f, -0.218279f, -0.189395f, 0.259239f, 0.269099f, 0.152267f, 0.223298f, -0.155504f, -0.084397f, 0.049500f, 0.287791f, -0.062342f },
    { -0.267131f, 0.037993f, 0.170263f, 0.205885f, 0.219365f, 0.222782f, -0.070317f, -0.092741f, -0.037605f, 0.257089f, -0.014210f, 0.123767f, 0.017369f, -0.040682f, -0.270283f, -0.034364f, -0.033078f, 0.143858f, 0.188152f, 0.195365f, 0.220182f, -0.288942f, 0.054803f, -0.211599f, 0.076710f, -0.166300f, -0.047915f, -0.011865f, 0.148492f, -0.220118f, 0.111053f, 0.183314f, 0.128019f, -0.053751f, -0.116494f, -0.347265f, 0.099461f, -0.059316f, -0.114342f, -0.099866f, 0.014870f, -0.003356f, -0.181059f, 0.205195f, 0.074189f, 0.105604f, -0.086571f, -0.369725f, -0.072634f, 0.141285f, -0.081790f, -0.123654f, -0.272588f, 0.076709f, -0.166240f, -0.056508f, -0.195152f, 0.139015f, -0.228628f, -0.179936f, -0.092340f, -0.185686f, -0.160580f, 0.082090f },
    { -0.036380f, 0.073639f, 0.005077f, -0.044782f, 0.004582f, 0.073418f, -0.089177f, 0.033307f, -0.035500f, 0.077366f, 0.005145f, -0.054814f, 0.023264f, 0.168165f, -0.047218f, -0.100104f, 0.171452f, 0.040605f, -0.282228f, -0.043758f, -0.184306f, 0.083123f, 0.003441f, -0.005986f, -0.063102f, -0.079097f, -0.002225f, 0.111358f, 0.134545f, -0.162724f, -0.230351f, -0.002197f, 0.076103f, 0.069728f, 0.133609f, 0.048264f, 0.049923f, -0.187549f, 0.007526f, 0.021490f, 0.112673f, -0.009004f, 0.051776f, 0.134544f, -0.141592f, 0.170624f, 0.068802f, -0.155112f, 0.058836f, 0.153093f, 0.061109f, 0.093611f, -0.163904f, 0.199505f, 0.176389f, -0.000401f, 0.086308f, 0.086600f, 0.087612f, -0.205460f, 0.185929f, -0.156993f, -0.129117f, 0.055828f },
    { 0.016186f, -0.192250f, -0.069665f, -0.176189f, 0.080531f, 0.026799f, 0.072089f, 0.013101f, -0.148253f, 0.117373f, 0.090346f, 0.083754f, -0.040205f, -0.196524f, 0.117844f, -0.155814f, -0.134501f, 0.043616f, -0.004996f, -0.002774f, 0.044547f, -0.143346f, 0.046780f, -0.102348f, 0.061707f, -0.143798f, -0.041155f, -0.258963f, -0.304259f, 0.092448f, -0.330747f, 0.099479f, 0.252962f, -0.291604f, 0.158950f, -0.294403f, -0.257048f, 0.110298f, 0.040859f, 0.173798f, 0.141269f, -0.060828f, -0.095231f, -0.000047f, -0.106528f, 0.177166f, 0.062151f, -0.412388f, -0.014999f, 0.144825f, -0.054243f, -0.194652f, -0.189565f, -0.238300f, -0.071156f, -0.007157f, 0.082694f, 0.045823f, 0.057280f, -0.064151f, 0.132439f, -0.003844f, 0.211134f, -0.024658f },
    { -0.057838f, 0.089391f, 0.033450f, -0.021694f, -0.250649f, -0.055512f, 0.093740f, 0.238393f, 0.284514f, -0.214456f, -0.369608f, -0.369380f, -0.200108f, -0.122760f, -0.005631f, -0.005305f, -0.297097f, -0.172171f, -0.264749f, 0.103570f, -0.329872f, -0.267846f, 0.190265f, 0.113435f, 0.281801f, -0.241737f, -0.097182f, 0.148798f, -0.029150f, -0.030586f, -0.140313f, -0.162440f, -0.110442f, -0.318745f, 0.104480f, 0.274257f, -0.076805f, 0.075137f, 0.053535f, -0.329041f, 0.066339f, -0.079843f, -0.212911f, -0.030397f, 0.035083f, -0.062495f, -0.014829f, 0.268383f, 0.033396f, 0.271925f, 0.098397f, -0.183743f, 0.026700f, 0.302321f, 0.030839f, -0.081574f, -0.284820f, 0.189890f, -0.038312f, -0.308404f, -0.282903f, -0.311250f, -0.160724f, 0.057624f },
    { -0.032736f, -0.329254f, 0.037288f, -0.203176f, -0.123539f, 0.146611f, 0.114455f, 0.229693f, 0.063099f, 0.065626f, 0.040020f, 0.090029f, -0.208293f, -0.170464f, 0.065390f, 0.066350f, 0.149562f, -0.044083f, -0.274667f, 0.134261f, 0.117559f, -0.325109f, -0.040664f, 0.104226f, -0.125178f, 0.133712f, 0.187021f, 0.115304f, 0.044403f, 0.104154f, -0.036198f, -0.018552f, -0.002315f, -0.042139f, 0.225522f, -0.151225f, -0.205576f, -0.186716f, 0.013045f, 0.000214f, -0.006126f, 0.067831f, -0.387346f, -0.193700f, 0.139008f, 0.149936f, -0.181000f, 0.155771f, 0.108816f, -0.188029f, 0.169351f, 0.165833f, -0.147165f, -0.006418f, -0.031282f, -0.193675f, -0.274538f, -0.136798f, -0.130793f, 0.045597f, 0.004387f, 0.153181f, 0.020338f, -0.265148f },
    { 0.086599f, -0.186016f, 0.190838f, -0.225873f, -0.053179f, -0.181313f, -0.106215f, -0.023243f, -0.287235f, -0.044169f, -0.132557f, -0.120019f, 0.041016f, -0.076148f, -0.027527f, 0.095422f, 0.037070f, 0.110509f, 0.081291f, -0.001709f, -0.073996f, 0.165692f, 0.093527f, 0.187697f, -0.173607f, -0.089611f, -0.005115f, -0.132047f, 0.312430f, 0.258969f, 0.294095f, 0.171348f, 0.084524f, 0.261835f, 0.192416f, 0.070167f, -0.149238f, 0.221045f, -0.016035f, 0.201939f, -0.045414f, -0.125783f, 0.006255f, 0.136591f, -0.251400f, -0.011603f, -0.096466f, 0.342610f, 0.107950f, -0.166141f, 0.256148f, -0.058266f, -0.104915f, 0.204409f, 0.204240f, -0.142134f, -0.046156f, 0.019457f, 0.001044f, -0.013325f, 0.200337f, -0.021340f, 0.211177f, 0.312605f },
    { -0.090102f, -0.184049f, 0.225223f, 0.094495f, -0.063612f, 0.051012f, 0.158047f, 0.012682f, 0.118044f, -0.103169f, 0.123438f, -0.012212f, 0.098586f, -0.148194f, -0.029280f, 0.143933f, -0.119334f, 0.091236f, -0.024099f, -0.069669f, 0.089406f, -0.133846f, -0.154461f, -0.014784f, 0.196997f, -0.069112f, -0.058348f, -0.069320f, 0.217004f, 0.080362f, 0.179131f, -0.034339f, 0.057424f, -0.063873f, -0.192782f, -0.010047f, -0.066433f, -0.146762f, -0.070043f, -0.067068f, 0.159956f, 0.077892f, -0.183542f, -0.150319f, -0.130921f, 0.082199f, 0.017219f, 0.297542f, -0.161375f, 0.101000f, 0.015702f, 0.200011f, -0.104651f, -0.066171f, -0.240250f, 0.189114f, -0.159291f, 0.128442f, -0.092658f, -0.080566f, -0.212625f, -0.052394f, -0.028946f, 0.366748f },
    { 0.008668f, -0.043605f, -0.359013f, 0.155581f, -0.014484f, 0.060286f, 0.314894f, -0.172963f, 0.216812f, -0.295614f, 0.025487f, 0.311199f, -0.155942f, 0.099684f, -0.056562f, 0.113846f, -0.040050f, 0.420274f, 0.357959f, 0.017778f, -0.157824f, -0.145963f, 0.136351f, 0.046352f, 0.079581f, 0.308437f, -0.228375f, -0.176717f, -0.225265f, -0.099803f, -0.208446f, -0.137695f, 0.000254f, -0.078242f, 0.181602f, -0.094332f, 0.165360f, 0.202425f, 0.218782f, -0.165093f, 0.015911f, -0.085204f, 0.218984f, -0.212265f, -0.066115f, -0.035568f, 0.145564f, -0.309860f, 0.208761f, -0.152611f, 0.176919f, 0.128547f, -0.203088f, 0.031709f, 0.080037f, -0.286961f, 0.037635f, 0.195055f, -0.155468f, -0.013999f, 0.096090f, -0.051395f, -0.176573f, -0.025783f },
    { -0.113571f, 0.034981f, 0.030593f, -0.278084f, -0.105735f, -0.121662f, 0.348769f, 0.119459f, -0.013683f, 0.163494f, 0.257914f, 0.023295f, 0.177497f, -0.027566f, -0.279710f, -0.006031f, -0.197883f, 0.191234f, -0.006988f, -0.321505f, 0.088700f, -0.345006f, -0.188835f, -0.136233f, -0.253609f, 0.051694f, 0.247429f, -0.196242f, -0.328014f, -0.375912f, -0.088929f, 0.115502f, -0.015875f, -0.317501f, -0.149888f, 0.283526f, -0.005238f, 0.280465f, -0.169549f, 0.104963f, 0.072960f, 0.137832f, 0.205334f, 0.157495f, 0.129274f, 0.202103f, -0.150038f, -0.456059f, -0.278220f, -0.249964f, 0.140135f, 0.216022f, -0.089467f, -0.057975f, -0.374839f, -0.072335f, -0.187182f, 0.136469f, 0.235146f, 0.036335f, -0.029347f, 0.347124f, 0.090802f, -0.602374f },
    { 0.021069f, -0.147542f, -0.041252f, 0.166724f, 0.001890f, -0.139862f, -0.064822f, -0.137559f, -0.033868f, 0.007308f, -0.033835f, 0.211124f, 0.011157f, 0.096502f, -0.183856f, 0.046971f, -0.069088f, -0.159369f, -0.204768f, 0.047873f, -0.035851f, 0.077868f, 0.131274f, 0.074233f, 0.026055f, 0.164654f, -0.101396f, -0.061668f, 0.020095f, -0.350855f, -0.057588f, -0.087579f, 0.278098f, -0.238636f, 0.203354f, -0.230219f, -0.078841f, 0.011185f, 0.194847f, -0.157979f, 0.048190f, 0.059837f, 0.052117f, -0.218434f, 0.254743f, -0.074293f, -0.041137f, 0.135194f, -0.011501f, 0.027616f, -0.277532f, 0.199937f, -0.149948f, 0.025162f, 0.125892f, -0.088553f, -0.155101f, -0.071631f, -0.010080f, 0.157111f, -0.184072f, -0.102032f, 0.029140f, -0.059451f },
    { 0.090497f, 0.029172f, 0.000050f, 0.002517f, 0.229484f, -0.183581f, 0.201539f, -0.212402f, 0.143674f, 0.055876f, -0.103188f, 0.256353f, -0.081517f, 0.253409f, -0.214693f, 0.182591f, 0.044644f, 0.066746f, 0.324857f, -0.241291f, -0.147477f, -0.278127f, -0.134176f, 0.045919f, -0.131079f, 0.027758f, -0.212238f, 0.137181f, 0.159102f, -0.110046f, -0.116108f, -0.199223f, -0.141062f, 0.016959f, 0.230448f, -0.061226f, 0.211656f, 0.254638f, 0.078727f, 0.008346f, 0.229940f, -0.088584f, -0.132745f, -0.091028f, 0.072356f, -0.155750f, 0.094945f, -0.182072f, -0.011810f, -0.139801f, -0.156750f, 0.152094f, -0.005174f, -0.264849f, -0.312743f, -0.169871f, -0.098491f, 0.149554f, 0.009336f, 0.161667f, 0.253876f, -0.057971f, 0.152572f, -0.340193f },
    { -0.118267f, 0.037030f, -0.137287f, -0.073200f, -0.025841f, -0.224089f, -0.141931f, 0.149501f, 0.169272f, 0.136011f, -0.035838f, 0.326493f, -0.304717f, 0.204965f, -0.033697f, 0.020647f, -0.078688f, 0.117719f, 0.268841f, -0.040880f, -0.146230f, -0.216592f, 0.110144f, 0.195495f, -0.318666f, -0.009523f, -0.031020f, 0.052407f, -0.220919f, -0.332146f, -0.399610f, -0.096202f, 0.165737f, -0.309351f, 0.189336f, -0.117183f, -0.173949f, -0.070457f, 0.202124f, -0.069070f, -0.033598f, 0.231464f, -0.113621f, 0.146765f, 0.242648f, -0.212587f, -0.019728f, 0.132077f, 0.280299f, -0.043055f, -0.275562f, 0.215215f, -0.273965f, -0.011362f, -0.109602f, -0.090698f, 0.113788f, -0.131738f, -0.301265f, -0.003279f, 0.059098f, -0.144615f, 0.249909f, -0.039973f },
    { 0.083664f, 0.163875f, 0.126077f, 0.205698f, 0.113404f, 0.105215f, 0.053906f, -0.187790f, -0.177927f, -0.085406f, -0.204115f, 0.242245f, 0.176323f, -0.038433f, -0.207556f, -0.136895f, -0.144963f, -0.094873f, -0.033811f, 0.051735f, -0.298796f, -0.359837f, 0.077230f, -0.159526f, -0.256883f, -0.185082f, 0.151456f, -0.282746f, 0.151144f, -0.261498f, -0.269170f, 0.231064f, -0.091738f, -0.257573f, -0.171100f, -0.241859f, 0.066255f, -0.046359f, -0.216726f, -0.260655f, 0.077302f, 0.044838f, -0.042103f, -0.156343f, 0.100355f, 0.057088f, 0.124444f, -0.179763f, 0.169626f, -0.352333f, -0.170826f, -0.034420f, -0.212182f, -0.225762f, -0.334950f, 0.142533f, 0.001394f, -0.057289f, -0.265369f, 0.279370f, 0.076552f, -0.028669f, 0.076501f, -0.249982f },
    { -0.167314f, -0.002017f, -0.133657f, -0.214455f, -0.196617f, -0.006263f, 0.136390f, 0.169328f, -0.177749f, -0.222097f, 0.073467f, -0.184860f, 0.036071f, -0.097873f, 0.067094f, 0.067889f, 0.033556f, 0.195103f, 0.032934f, -0.016245f, 0.234850f, 0.118277f, 0.166241f, 0.060658f, 0.161612f, -0.199385f, 0.020151f, 0.118975f, -0.008895f, 0.178582f, -0.216247f, 0.187999f, -0.074531f, -0.291080f, 0.151003f, -0.251274f, 0.066845f, -0.285643f, 0.090606f, -0.320796f, -0.253618f, 0.125532f, -0.116613f, 0.059143f, 0.194273f, 0.014822f, 0.100750f, -0.181833f, 0.180367f, 0.092904f, 0.101789f, 0.034464f, 0.216959f, 0.069212f, 0.010585f, 0.179918f, -0.197905f, -0.068553f, -0.285583f, 0.202472f, 0.104655f, 0.085504f, -0.064581f, 0.096733f },
    { 0.309959f, -0.283970f, -0.138908f, 0.284346f, -0.175056f, 0.140483f, -0.040755f, -0.088666f, -0.360167f, -0.311927f, 0.153021f, 0.092809f, -0.033787f, -0.087745f, -0.233319f, 0.187888f, -0.124890f, 0.322338f, -0.238035f, 0.253136f, -0.042927f, 0.340550f, 0.517934f, 0.184639f, -0.214976f, -0.144815f, -0.169487f, -0.200139f, 0.067875f, -0.031550f, 0.282765f, 0.227501f, 0.392721f, 0.232830f, 0.109215f, 0.110408f, -0.055753f, -0.076308f, 0.193766f, 0.018232f, 0.239751f, -0.356556f, 0.147668f, -0.149600f, -0.080067f, 0.182751f, 0.139161f, 0.339602f, 0.351767f, -0.198503f, 0.032819f, 0.123051f, 0.204329f, 0.170017f, 0.056294f, -0.111570f, 0.120871f, -0.312361f, -0.073882f, -0.216424f, 0.057174f, -0.187828f, -0.061794f, 0.035969f },
    { 0.040351f, -0.147777f, 0.039004f, -0.022602f, 0.136744f, 0.261185f, -0.265124f, -0.184008f, -0.425187f, 0.141232f, -0.172862f, -0.233977f, -0.255836f, 0.243707f, 0.035360f, -0.139085f, -0.046115f, 0.060736f, 0.059588f, 0.016872f, -0.274065f, -0.201494f, -0.297995f, -0.152392f, -0.314459f, 0.163428f, 0.228183f, -0.098808f, -0.153905f, -0.191710f, -0.037978f, -0.075457f, -0.173416f, -0.025440f, -0.117936f, 0.093763f, 0.125432f, -0.080761f, -0.180341f, -0.003124f, -0.217603f, 0.190348f, -0.269795f, -0.159020f, -0.053141f, -0.153897f, -0.037146f, -0.110522f, 0.154463f, 0.253442f, 0.163364f, -0.080095f, 0.050035f, 0.175849f, -0.192091f, 0.083291f, -0.093699f, -0.087197f, -0.196599f, -0.156883f, 0.137508f, -0.048274f, -0.029567f, -0.071026f }
};
const float b1_base[64] = { 0.121707f, 0.091862f, 0.114262f, 0.034732f, 0.007947f, 0.002101f, 0.249848f, -0.029774f, 0.127227f, 0.010056f, 0.163271f, 0.118952f, -0.048410f, 0.006267f, 0.088306f, 0.103881f, 0.154724f, 0.114118f, 0.145849f, 0.061908f, 0.126572f, 0.143846f, 0.158099f, 0.076702f, 0.105471f, 0.023331f, 0.026916f, -0.008896f, 0.104092f, 0.101860f, 0.178135f, 0.063870f, 0.006432f, 0.099043f, 0.050446f, 0.138414f, 0.093331f, 0.111823f, -0.034519f, 0.092303f, 0.122707f, -0.039926f, 0.147239f, 0.079229f, -0.084421f, 0.079908f, -0.054766f, 0.175605f, 0.131121f, 0.094072f, 0.142390f, 0.001894f, 0.119268f, 0.059664f, 0.108439f, 0.074654f, 0.110567f, -0.041849f, 0.151154f, 0.116826f, 0.143803f, 0.119616f, -0.019594f, 0.109308f };

const float W2_base[64][32] = {
    { 0.138890f, 0.378112f, -0.209376f, -0.086144f, 0.456017f, 0.205456f, 0.256475f, 0.157633f, 0.264454f, 0.322053f, -0.083691f, -0.082456f, 0.276962f, 0.092509f, -0.155907f, -0.129129f, -0.204575f, -0.042106f, 0.231115f, 0.127658f, -0.183301f, -0.341870f, 0.296556f, 0.102324f, -0.273335f, 0.319083f, 0.170330f, -0.188530f, -0.033209f, 0.321576f, -0.146208f, 0.038014f },
    { 0.041954f, -0.015656f, 0.312098f, 0.277249f, -0.096793f, 0.095558f, 0.155553f, 0.164385f, 0.070781f, -0.111590f, 0.104646f, -0.091428f, 0.346257f, 0.123100f, -0.164723f, 0.174508f, 0.070656f, -0.084633f, -0.101389f, 0.090884f, -0.171998f, 0.257977f, 0.085415f, -0.053990f, -0.176081f, -0.228565f, 0.219815f, 0.258189f, -0.284133f, 0.136351f, -0.277969f, -0.111408f },
    { -0.069796f, -0.111231f, 0.070107f, 0.084812f, -0.109325f, -0.300282f, -0.229128f, -0.072014f, 0.069870f, -0.276882f, 0.124209f, 0.048590f, 0.203220f, 0.234833f, 0.169362f, 0.058229f, -0.244059f, 0.072893f, 0.025209f, 0.235703f, 0.143154f, -0.172669f, -0.118586f, 0.212727f, -0.085037f, -0.273933f, 0.188677f, 0.350027f, 0.156390f, 0.267346f, -0.004137f, -0.042920f },
    { -0.098021f, 0.240541f, -0.077067f, 0.063817f, -0.123882f, 0.148751f, 0.162693f, -0.059624f, 0.218040f, 0.033765f, -0.294207f, -0.371029f, -0.108758f, 0.031422f, -0.059098f, 0.212896f, -0.078797f, 0.171823f, -0.075790f, 0.310271f, 0.235105f, -0.105482f, 0.355770f, 0.070518f, -0.050426f, 0.199447f, -0.266143f, 0.062257f, 0.196312f, -0.132982f, -0.161238f, 0.083962f },
    { 0.191575f, -0.005643f, -0.065038f, 0.038086f, 0.079319f, -0.100526f, 0.205801f, 0.264072f, -0.263155f, -0.074343f, -0.228601f, -0.088177f, 0.130893f, 0.039778f, -0.269635f, 0.251362f, -0.084208f, 0.031228f, 0.015322f, -0.203595f, 0.053709f, -0.106971f, -0.045896f, -0.012700f, -0.051130f, 0.107977f, 0.010674f, 0.239129f, -0.059714f, -0.033787f, 0.169876f, 0.100496f },
    { -0.304733f, -0.174857f, 0.043182f, -0.110583f, -0.050755f, 0.084555f, -0.104064f, 0.056245f, 0.278044f, -0.106663f, -0.068350f, -0.371820f, 0.301836f, -0.106779f, -0.268725f, -0.171399f, 0.163316f, 0.015871f, -0.194830f, -0.143130f, -0.139801f, 0.101372f, 0.192164f, 0.049968f, -0.347445f, -0.005586f, 0.122379f, -0.145669f, 0.073437f, 0.138371f, 0.060222f, -0.089889f },
    { 0.015363f, 0.025422f, 0.078872f, -0.283469f, 0.099207f, 0.289509f, -0.152342f, -0.070938f, -0.039030f, -0.014898f, 0.053158f, 0.260699f, 0.050780f, 0.188580f, 0.164330f, 0.052718f, -0.039851f, 0.213037f, -0.290939f, -0.155150f, 0.005927f, -0.290567f, 0.312146f, 0.341253f, -0.201427f, 0.296511f, 0.024171f, -0.023511f, 0.056118f, 0.176116f, 0.115119f, 0.080698f },
    { 0.033433f, 0.070487f, -0.040554f, -0.197871f, 0.197432f, 0.046831f, -0.307704f, 0.130673f, 0.155800f, -0.309008f, 0.303121f, -0.175928f, -0.154972f, 0.174658f, 0.261884f, -0.055254f, -0.271382f, 0.078676f, -0.227435f, -0.070904f, 0.066090f, -0.202044f, -0.271004f, 0.244442f, -0.075294f, -0.088226f, 0.171957f, -0.152977f, 0.153719f, 0.136652f, -0.267336f, -0.162880f },
    { -0.024544f, 0.143024f, -0.072536f, -0.026464f, 0.309450f, 0.124655f, -0.196780f, 0.304347f, -0.015724f, 0.016529f, -0.152530f, -0.258838f, -0.060659f, 0.137581f, -0.025273f, 0.225756f, 0.161769f, 0.058118f, -0.133121f, 0.211330f, 0.191109f, -0.364887f, 0.151617f, 0.334125f, -0.116128f, 0.088444f, -0.194339f, -0.022440f, 0.074660f, 0.008758f, -0.028452f, -0.060736f },
    { -0.256907f, 0.150607f, 0.131120f, 0.190974f, 0.059681f, -0.175086f, -0.090743f, -0.168479f, 0.287565f, 0.226173f, 0.301125f, -0.019132f, 0.051544f, -0.190348f, 0.178721f, 0.057816f, -0.145223f, -0.129035f, 0.204737f, -0.346031f, 0.045567f, -0.106361f, -0.162793f, -0.023839f, -0.112211f, -0.109065f, -0.018627f, 0.150347f, -0.068077f, -0.147194f, -0.077586f, 0.130378f },
    { 0.063741f, 0.222700f, 0.180201f, -0.237499f, -0.036920f, -0.113204f, 0.172342f, 0.050567f, -0.050491f, -0.093835f, -0.282021f, 0.022822f, 0.010490f, -0.253829f, 0.073561f, 0.147970f, -0.042955f, -0.179300f, 0.253146f, -0.233189f, -0.244378f, -0.058014f, -0.294512f, 0.127723f, 0.204660f, -0.021779f, 0.281137f, -0.152607f, 0.138941f, -0.345988f, -0.131627f, -0.115166f },
    { 0.318740f, 0.243931f, 0.177607f, -0.091087f, 0.292525f, 0.103739f, -0.079843f, 0.224600f, -0.203824f, 0.047682f, 0.189151f, 0.314935f, -0.315442f, -0.100007f, -0.139491f, 0.105534f, 0.130826f, 0.288663f, 0.216573f, 0.008100f, -0.283027f, -0.288948f, 0.202124f, -0.136328f, 0.030436f, 0.328819f, -0.145246f, -0.272443f, -0.048374f, 0.160471f, -0.115257f, 0.075513f },
    { 0.003462f, 0.059781f, 0.274226f, 0.202768f, -0.221340f, 0.158421f, -0.129802f, 0.001924f, 0.170627f, 0.157606f, 0.054755f, -0.096086f, -0.116647f, -0.115972f, 0.084151f, 0.166490f, -0.263789f, -0.153184f, -0.093288f, -0.336992f, -0.119434f, 0.233221f, -0.069701f, -0.073170f, 0.150204f, -0.174860f, 0.126975f, -0.107562f, -0.131298f, -0.266152f, -0.093581f, 0.078725f },
    { 0.010276f, 0.312516f, -0.196883f, -0.080480f, 0.023628f, 0.164684f, -0.054866f, 0.214961f, 0.162207f, -0.151773f, -0.027949f, 0.161148f, 0.287283f, 0.097219f, -0.133249f, 0.160479f, -0.255026f, 0.106898f, -0.202299f, -0.232410f, 0.183720f, -0.282079f, -0.070888f, 0.263013f, -0.205158f, 0.170384f, 0.299935f, -0.083652f, -0.024901f, -0.246253f, -0.083532f, -0.090564f },
    { -0.320934f, 0.104159f, 0.116535f, -0.015661f, -0.159211f, -0.012705f, 0.200282f, -0.077787f, 0.000163f, 0.121226f, -0.053505f, -0.158714f, 0.043897f, -0.202355f, 0.095912f, 0.174535f, -0.065390f, 0.064664f, -0.049960f, 0.212619f, 0.313342f, 0.280084f, -0.064081f, 0.155360f, -0.218982f, -0.209239f, 0.168280f, 0.124105f, 0.016119f, 0.013194f, -0.133821f, 0.092294f },
    { 0.052852f, 0.053421f, 0.161432f, 0.084735f, 0.330687f, 0.136163f, 0.369024f, 0.225344f, 0.272758f, 0.215428f, -0.236698f, -0.057874f, -0.083631f, -0.143379f, 0.120790f, -0.313009f, -0.303491f, -0.053357f, 0.087135f, 0.116333f, -0.336855f, -0.018852f, 0.241598f, -0.173190f, 0.135548f, 0.135226f, 0.271229f, -0.087694f, -0.226881f, 0.137218f, -0.266614f, 0.465900f },
    { 0.168689f, -0.182212f, -0.017313f, 0.264127f, 0.026658f, -0.093552f, -0.051371f, 0.225607f, -0.391400f, -0.159215f, 0.227905f, 0.341372f, 0.141457f, -0.138856f, -0.105706f, 0.167302f, -0.136147f, -0.176033f, -0.087576f, 0.071001f, -0.084639f, -0.062007f, 0.140019f, -0.006703f, 0.301774f, 0.002962f, -0.159026f, 0.175974f, 0.103092f, -0.063975f, -0.105851f, -0.069006f },
    { 0.194257f, 0.210287f, 0.021195f, -0.119736f, -0.197815f, 0.326764f, 0.162135f, 0.201707f, -0.000025f, 0.226245f, -0.200539f, -0.142444f, 0.351909f, -0.075365f, -0.043285f, 0.007457f, 0.098582f, -0.091559f, 0.303451f, -0.267996f, 0.059003f, -0.144026f, -0.011079f, -0.115272f, -0.209531f, -0.066676f, -0.067063f, 0.104726f, 0.008603f, 0.122495f, -0.260205f, -0.142516f },
    { -0.035207f, 0.109369f, 0.223069f, -0.014971f, -0.086439f, 0.201900f, 0.041417f, 0.210496f, -0.096092f, -0.081835f, 0.163907f, 0.140125f, 0.270330f, 0.092381f, 0.035999f, -0.189677f, 0.189370f, 0.204466f, -0.239850f, 0.135282f, -0.252468f, 0.106013f, 0.227674f, 0.030293f, -0.143657f, 0.271513f, 0.090064f, 0.012138f, 0.052604f, 0.197886f, -0.087526f, -0.037544f },
    { -0.268418f, 0.135293f, -0.307784f, -0.008149f, -0.235818f, 0.096793f, 0.158762f, -0.045202f, -0.058719f, -0.072011f, -0.227884f, -0.143676f, 0.081065f, 0.122785f, -0.066662f, -0.140556f, -0.127538f, 0.175516f, 0.065110f, -0.052848f, 0.075195f, 0.153235f, 0.203549f, -0.160669f, -0.309025f, -0.168087f, -0.003564f, -0.052827f, -0.098090f, 0.118892f, -0.107125f, 0.186116f },
    { 0.149895f, 0.110174f, 0.035073f, 0.268305f, -0.028001f, -0.275726f, -0.237917f, 0.167429f, -0.330365f, 0.080584f, 0.226866f, 0.346063f, -0.175806f, -0.165232f, 0.255668f, 0.083961f, 0.198356f, 0.007560f, 0.273269f, -0.241638f, -0.306200f, -0.068922f, -0.228144f, 0.082573f, 0.326139f, -0.052022f, -0.012603f, 0.086910f, -0.036864f, -0.159110f, 0.004050f, -0.394339f },
    { 0.415582f, -0.183037f, -0.049690f, -0.141508f, 0.176109f, 0.040210f, 0.329845f, 0.005213f, 0.072121f, -0.040087f, -0.297213f, 0.358526f, -0.192699f, 0.135889f, 0.292589f, -0.126164f, 0.203820f, -0.251938f, 0.225380f, -0.053235f, -0.055033f, 0.174360f, 0.185419f, 0.039201f, 0.375634f, -0.240455f, -0.218150f, -0.165603f, 0.087944f, -0.018620f, 0.174381f, 0.205375f },
    { -0.061525f, 0.148068f, -0.308269f, 0.088432f, -0.056687f, -0.132972f, 0.077804f, 0.047457f, 0.155355f, 0.157675f, -0.151615f, 0.156418f, -0.140453f, 0.037696f, 0.012721f, 0.113412f, -0.027605f, 0.134945f, 0.069277f, -0.171932f, 0.235500f, -0.316851f, 0.321296f, 0.263935f, 0.125828f, 0.249353f, -0.158469f, -0.225619f, -0.168534f, -0.062285f, -0.203383f, -0.264272f },
    { 0.201534f, -0.097147f, -0.095430f, -0.127783f, 0.349209f, -0.273097f, 0.107045f, 0.081963f, -0.036747f, 0.140816f, -0.197282f, -0.029882f, 0.148822f, -0.249195f, 0.163180f, 0.336493f, -0.263673f, -0.133198f, -0.147225f, 0.340503f, 0.281913f, 0.095602f, 0.029327f, 0.169362f, -0.128496f, 0.115694f, -0.300345f, 0.096077f, -0.132444f, 0.114581f, -0.154893f, 0.093960f },
    { 0.123863f, 0.005800f, -0.022559f, -0.005940f, 0.069121f, 0.067568f, 0.119635f, -0.077789f, 0.310558f, -0.005035f, 0.441366f, 0.164899f, 0.285989f, -0.204896f, 0.262516f, 0.282589f, 0.114313f, 0.133660f, -0.144092f, 0.143479f, 0.050135f, 0.288820f, 0.090496f, 0.183034f, 0.014738f, -0.066790f, 0.126742f, 0.018967f, -0.065201f, 0.098478f, -0.208660f, -0.153506f },
    { 0.115012f, 0.033797f, 0.053758f, -0.152827f, 0.240133f, -0.076099f, 0.194634f, -0.125102f, 0.043191f, 0.054819f, 0.257634f, -0.155950f, -0.361849f, 0.168837f, -0.221587f, -0.219960f, 0.085646f, 0.187190f, 0.112781f, -0.283514f, -0.131607f, 0.120772f, 0.183030f, -0.099736f, 0.002261f, -0.093796f, -0.254070f, 0.147575f, -0.205780f, 0.129207f, -0.191008f, -0.169950f },
    { -0.153725f, -0.029424f, 0.341377f, 0.146223f, 0.037420f, -0.244779f, 0.201117f, 0.043568f, -0.212011f, -0.047064f, 0.128470f, -0.017439f, 0.120818f, 0.234681f, 0.164922f, 0.112212f, 0.153230f, -0.001782f, -0.136106f, -0.766221f, 0.101920f, 0.246850f, -0.263120f, 0.237448f, 0.166871f, -0.226713f, -0.138276f, -0.153442f, 0.270588f, 0.135819f, -0.206793f, -0.273811f },
    { -0.321550f, -0.082862f, -0.108894f, -0.202280f, -0.352760f, -0.083453f, 0.192506f, 0.029072f, 0.045756f, 0.132904f, 0.124466f, -0.358332f, 0.006467f, 0.240872f, -0.204705f, 0.152862f, 0.093105f, -0.146358f, 0.199692f, 0.005917f, -0.265469f, -0.292940f, 0.124942f, -0.158574f, -0.268007f, -0.186862f, 0.276191f, 0.012585f, -0.226039f, -0.235960f, 0.136790f, 0.102378f },
    { 0.130850f, 0.186215f, 0.204058f, -0.184899f, -0.049929f, 0.196663f, 0.265845f, 0.101592f, 0.319358f, 0.157683f, 0.257546f, 0.030858f, 0.346452f, 0.160489f, -0.157458f, 0.227640f, 0.151689f, 0.123004f, 0.026124f, 0.294512f, 0.270085f, -0.083755f, 0.129743f, 0.111722f, -0.046848f, -0.206097f, 0.315911f, -0.039899f, 0.119893f, 0.068197f, -0.003067f, -0.078449f },
    { 0.102643f, 0.059432f, -0.124988f, -0.164878f, -0.001021f, -0.082455f, -0.026079f, -0.009232f, 0.370197f, 0.247975f, -0.162760f, 0.217581f, 0.046509f, -0.007594f, 0.137460f, -0.247748f, 0.061261f, 0.002974f, 0.317244f, 0.101222f, 0.188404f, -0.055611f, -0.008202f, -0.160384f, 0.142256f, -0.282915f, 0.265100f, -0.188007f, -0.034740f, -0.146947f, -0.110211f, 0.241963f },
    { 0.192341f, -0.290662f, -0.002896f, 0.150937f, -0.108612f, 0.016637f, -0.260188f, -0.074976f, 0.042917f, -0.063178f, -0.239924f, 0.304961f, 0.002296f, 0.023439f, 0.200841f, -0.012306f, 0.220236f, 0.042547f, 0.259472f, 0.276443f, 0.184981f, -0.202552f, -0.228949f, 0.243755f, 0.107328f, -0.078446f, -0.018830f, 0.015619f, 0.109071f, 0.155236f, 0.218978f, -0.114942f },
    { -0.325751f, 0.082190f, -0.196240f, 0.110282f, -0.258432f, 0.286797f, 0.179664f, 0.093775f, 0.324937f, 0.140548f, 0.046059f, -0.231268f, 0.041385f, 0.242903f, 0.078699f, 0.028914f, -0.152574f, 0.159532f, 0.067255f, -0.240708f, -0.138924f, -0.104977f, 0.371842f, -0.220779f, -0.234392f, 0.159808f, 0.145244f, -0.237834f, -0.151113f, 0.062202f, 0.134674f, 0.388262f },
    { 0.024945f, -0.206217f, -0.120789f, -0.062464f, -0.132958f, 0.023488f, -0.119530f, -0.136269f, -0.022218f, 0.300148f, -0.131987f, -0.121043f, -0.279104f, 0.035492f, 0.177194f, -0.378439f, -0.058128f, 0.208811f, -0.005996f, -0.148506f, -0.156991f, 0.323184f, -0.130517f, -0.226781f, 0.053535f, 0.221853f, 0.091386f, -0.456645f, 0.044658f, 0.142448f, 0.153142f, 0.193931f },
    { 0.120615f, 0.245855f, -0.157448f, 0.241043f, -0.079663f, 0.156376f, -0.171311f, 0.260694f, -0.163244f, -0.145120f, 0.074153f, 0.200189f, -0.160543f, 0.063964f, 0.051654f, -0.160703f, -0.243336f, 0.180127f, 0.323603f, -0.149779f, -0.198476f, 0.293843f, 0.016362f, -0.124581f, 0.075397f, 0.113628f, 0.078025f, -0.023255f, 0.258746f, -0.112050f, -0.163105f, -0.387702f },
    { 0.243229f, -0.109792f, 0.059484f, 0.205307f, -0.063244f, 0.202998f, -0.067188f, -0.118220f, -0.029993f, -0.231647f, -0.211594f, 0.262035f, 0.026835f, -0.077519f, -0.136262f, -0.040356f, -0.257006f, 0.098314f, -0.267846f, -0.150806f, -0.076095f, -0.081633f, 0.145720f, 0.038736f, -0.135747f, -0.101626f, 0.194281f, 0.162835f, 0.020947f, 0.187069f, -0.073383f, 0.124651f },
    { 0.121451f, -0.102172f, -0.027459f, -0.168060f, 0.235012f, 0.292751f, 0.089229f, 0.041157f, 0.214135f, 0.148980f, -0.019161f, -0.025563f, 0.264540f, 0.088080f, 0.240829f, 0.258950f, 0.158908f, -0.121192f, 0.045114f, 0.097456f, 0.262147f, -0.183608f, 0.090198f, 0.068812f, -0.058639f, -0.047593f, -0.201994f, 0.311749f, 0.231285f, 0.145134f, -0.238950f, -0.277363f },
    { 0.214185f, 0.002811f, -0.042431f, 0.053986f, 0.143647f, 0.128749f, 0.026916f, 0.220894f, -0.167989f, -0.099432f, -0.172597f, 0.139585f, -0.024081f, 0.018834f, -0.202840f, -0.048179f, -0.013676f, 0.152814f, -0.133153f, -0.137602f, -0.098586f, -0.189937f, 0.081342f, 0.290297f, -0.092341f, -0.125485f, 0.244541f, 0.031633f, 0.072796f, -0.124661f, 0.204388f, -0.263760f },
    { 0.094218f, -0.175528f, -0.171151f, -0.134653f, 0.173418f, 0.159411f, -0.168845f, 0.229340f, -0.010416f, 0.007747f, -0.222908f, -0.122959f, 0.125123f, -0.025005f, -0.023892f, 0.141366f, -0.021600f, 0.041630f, -0.273154f, 0.130421f, 0.303592f, -0.252457f, 0.287798f, 0.200411f, -0.120295f, -0.022223f, -0.080815f, -0.041841f, -0.136333f, 0.341568f, 0.150754f, -0.226148f },
    { 0.287120f, -0.049875f, -0.095094f, 0.202270f, 0.406996f, -0.121525f, -0.115086f, -0.211560f, 0.087759f, -0.028368f, -0.043985f, -0.118612f, 0.186921f, 0.159328f, -0.019146f, -0.152877f, -0.012548f, 0.038625f, -0.109966f, 0.223177f, 0.267962f, -0.021147f, -0.068161f, -0.006895f, 0.101488f, -0.030135f, 0.004870f, -0.189143f, 0.032983f, -0.066902f, 0.135951f, -0.170208f },
    { 0.019126f, 0.219006f, -0.025582f, -0.161323f, -0.031640f, 0.317378f, 0.330272f, 0.195604f, 0.172129f, -0.161849f, 0.093356f, 0.000972f, -0.093296f, -0.205919f, -0.167851f, -0.260375f, -0.109331f, -0.087991f, 0.259612f, 0.110638f, -0.118615f, -0.059875f, 0.328689f, -0.258531f, 0.150202f, -0.090989f, -0.077586f, 0.059517f, -0.242271f, -0.140203f, 0.207961f, 0.246696f },
    { 0.062231f, -0.035720f, -0.051681f, -0.208342f, 0.229758f, 0.167013f, 0.092094f, 0.200405f, -0.074470f, -0.050480f, -0.262423f, 0.300089f, -0.020334f, 0.220590f, 0.146723f, -0.020241f, 0.056136f, 0.252693f, 0.061700f, 0.098592f, 0.106090f, 0.062678f, 0.038644f, 0.137284f, 0.103247f, 0.001882f, -0.015149f, -0.025721f, 0.248851f, 0.124528f, -0.150816f, -0.005003f },
    { 0.171919f, 0.079894f, -0.051449f, 0.330740f, -0.281982f, 0.055502f, -0.198719f, 0.156933f, 0.084600f, 0.177031f, 0.185174f, -0.172791f, -0.154157f, 0.098868f, -0.356429f, -0.022769f, -0.006994f, -0.268185f, -0.026239f, 0.008959f, -0.279914f, -0.182236f, -0.092353f, -0.162745f, -0.151211f, 0.021616f, 0.149315f, 0.271478f, -0.261774f, 0.061340f, 0.111684f, 0.138382f },
    { 0.220582f, -0.108527f, -0.193076f, -0.200492f, -0.184764f, 0.262083f, -0.007630f, 0.121628f, -0.012345f, -0.162938f, 0.095744f, -0.089325f, 0.082372f, -0.211060f, -0.189134f, -0.015411f, 0.182712f, -0.165960f, 0.249383f, -0.027082f, 0.173184f, -0.080502f, -0.007152f, -0.090817f, 0.369034f, 0.162641f, 0.052627f, -0.171814f, -0.015373f, 0.101259f, -0.054598f, 0.244524f },
    { 0.065375f, 0.220497f, 0.171351f, 0.151854f, -0.015592f, 0.211756f, 0.100270f, 0.218705f, -0.005612f, -0.061748f, 0.158470f, 0.187232f, 0.175381f, -0.244710f, -0.227131f, 0.050659f, -0.180068f, -0.071444f, -0.058055f, 0.013002f, -0.173885f, -0.179321f, 0.236080f, -0.018560f, 0.224349f, 0.035811f, -0.142858f, 0.185453f, 0.139760f, 0.112884f, 0.223197f, 0.083125f },
    { -0.212095f, 0.254547f, 0.061122f, -0.124533f, -0.337647f, -0.003774f, -0.156688f, 0.026409f, -0.321216f, 0.081472f, 0.030431f, -0.034078f, 0.185675f, -0.236014f, 0.032763f, -0.169617f, 0.182400f, -0.210605f, -0.267369f, -0.232706f, -0.032930f, 0.183233f, -0.022400f, 0.210348f, 0.184755f, -0.097217f, -0.204585f, 0.275518f, -0.159257f, -0.275571f, -0.165021f, -0.250055f },
    { -0.220490f, 0.169661f, -0.055581f, -0.007145f, -0.206433f, 0.128301f, 0.077241f, -0.194060f, 0.155804f, -0.181698f, 0.076418f, 0.006136f, 0.055865f, -0.255483f, -0.022657f, 0.220305f, 0.060033f, -0.172677f, -0.028764f, 0.255793f, 0.178771f, 0.325579f, -0.115745f, -0.177208f, 0.144614f, -0.099564f, -0.221495f, -0.026232f, 0.041289f, 0.037042f, 0.012215f, 0.207691f },
    { 0.173138f, -0.006386f, -0.100449f, 0.100783f, 0.103711f, -0.111495f, -0.062836f, -0.107125f, 0.090366f, 0.221153f, -0.154248f, -0.093100f, 0.119627f, -0.202517f, 0.109452f, -0.059544f, -0.018071f, -0.197675f, -0.100308f, 0.018154f, 0.026758f, -0.222707f, 0.189083f, -0.135248f, 0.000125f, 0.423783f, 0.138406f, -0.213939f, -0.118405f, -0.022652f, -0.091472f, -0.019916f },
    { 0.021368f, -0.271304f, 0.259526f, -0.108778f, 0.238656f, -0.291853f, 0.124297f, 0.018427f, 0.008793f, 0.284307f, 0.235100f, 0.150678f, -0.186202f, -0.075370f, 0.254628f, -0.067919f, -0.257888f, -0.317852f, 0.411800f, 0.162766f, 0.180061f, -0.227985f, -0.241168f, -0.188446f, 0.265868f, -0.053002f, 0.117440f, -0.080730f, 0.112265f, 0.070027f, 0.120604f, 0.187469f },
    { 0.082891f, -0.092026f, 0.063199f, -0.249683f, 0.149367f, 0.158919f, 0.170343f, 0.134103f, 0.179336f, 0.348680f, -0.209005f, -0.219485f, 0.070763f, -0.155557f, 0.053502f, 0.307972f, 0.070078f, 0.178436f, -0.161238f, 0.247930f, -0.188747f, -0.097067f, 0.083261f, -0.023698f, -0.331860f, 0.291736f, 0.075195f, 0.172395f, -0.175782f, 0.314644f, -0.224143f, 0.112077f },
    { -0.014832f, -0.181811f, 0.202309f, 0.268928f, -0.182729f, -0.265637f, -0.091016f, -0.157151f, 0.238787f, -0.045741f, 0.097516f, 0.163390f, -0.223192f, -0.003987f, 0.190970f, 0.198167f, -0.228381f, -0.061361f, 0.091597f, 0.288513f, 0.298861f, -0.040027f, -0.279275f, 0.205231f, 0.140837f, -0.029480f, 0.262847f, 0.263903f, -0.015676f, 0.232764f, 0.027955f, -0.167382f },
    { -0.070362f, 0.000001f, -0.047971f, -0.139466f, -0.223574f, 0.017366f, 0.038628f, -0.174917f, 0.349732f, -0.069725f, 0.080418f, 0.030763f, 0.248813f, -0.244282f, 0.128817f, 0.131851f, -0.188191f, 0.023094f, 0.192348f, -0.100334f, -0.263985f, -0.086889f, 0.050528f, -0.233510f, -0.033977f, -0.244015f, 0.196388f, -0.188355f, 0.184935f, -0.257027f, 0.170659f, 0.152211f },
    { 0.038577f, 0.292798f, 0.301718f, 0.034433f, -0.001726f, 0.000425f, -0.277861f, -0.143612f, -0.328188f, -0.030971f, -0.088900f, 0.086353f, 0.025368f, 0.099301f, -0.287545f, 0.003858f, -0.213237f, 0.149984f, -0.197046f, -0.129844f, -0.064038f, 0.268707f, -0.200362f, 0.103631f, 0.328265f, 0.215898f, 0.046323f, 0.195107f, -0.148462f, -0.021768f, 0.191992f, -0.094533f },
    { 0.223002f, -0.135898f, -0.082429f, -0.082312f, -0.169771f, -0.104830f, 0.245764f, -0.228749f, -0.251800f, 0.005772f, 0.020782f, 0.373530f, -0.221370f, -0.254551f, 0.180872f, -0.092399f, -0.058659f, 0.106153f, 0.289659f, -0.079461f, 0.105352f, -0.142246f, 0.005437f, 0.135432f, 0.389426f, 0.015806f, -0.251550f, -0.052375f, 0.373385f, -0.188640f, -0.264307f, -0.029457f },
    { 0.025775f, 0.218081f, -0.123384f, 0.182407f, 0.168043f, 0.164415f, -0.130144f, -0.173356f, 0.153809f, -0.123837f, -0.057733f, -0.283010f, 0.166325f, -0.172856f, 0.264536f, -0.150520f, 0.126967f, -0.197943f, 0.072259f, 0.094735f, 0.093924f, 0.010648f, 0.203941f, 0.169300f, 0.026276f, -0.059157f, -0.172811f, 0.048587f, -0.080948f, -0.030801f, -0.047895f, -0.036607f },
    { -0.059232f, 0.062480f, 0.344105f, 0.086242f, 0.382948f, -0.131758f, -0.221838f, -0.292916f, 0.201099f, -0.333322f, 0.016129f, -0.016197f, -0.072609f, -0.147146f, -0.009386f, -0.071746f, -0.138475f, -0.261459f, -0.110608f, 0.089822f, 0.018890f, 0.260992f, 0.070121f, -0.132125f, -0.105157f, 0.090555f, -0.284866f, -0.203308f, 0.221302f, 0.089171f, -0.163415f, -0.089384f },
    { -0.240991f, 0.230649f, 0.314065f, 0.054937f, -0.079940f, 0.194281f, 0.235035f, -0.105717f, 0.044320f, 0.062991f, 0.268375f, 0.123752f, -0.020578f, 0.188290f, -0.002775f, -0.217455f, -0.269660f, -0.224714f, 0.181976f, 0.013703f, 0.134767f, 0.062091f, 0.116901f, 0.045774f, 0.099257f, 0.175403f, 0.020309f, 0.233973f, 0.142859f, -0.199653f, -0.072500f, -0.201125f },
    { 0.168166f, 0.191531f, 0.018283f, 0.145831f, 0.068765f, -0.092387f, -0.005733f, 0.098656f, -0.259936f, 0.074548f, 0.183018f, -0.023262f, -0.162492f, 0.172409f, -0.078053f, 0.076981f, -0.006561f, 0.123890f, 0.194145f, -0.103505f, 0.060729f, 0.286005f, -0.199872f, 0.050540f, 0.309889f, 0.061365f, 0.098649f, 0.032549f, 0.063798f, 0.228369f, 0.160909f, 0.235662f },
    { 0.117355f, 0.164844f, 0.291517f, -0.086681f, 0.188921f, 0.011867f, -0.019006f, -0.076741f, -0.358575f, -0.145227f, 0.284398f, -0.025916f, 0.142157f, 0.067911f, -0.036133f, 0.190399f, 0.118645f, -0.181110f, -0.076453f, 0.116282f, 0.209653f, 0.047607f, -0.085780f, 0.091457f, -0.107806f, 0.210393f, -0.096771f, 0.161190f, -0.107049f, -0.125767f, 0.017259f, 0.118550f },
    { 0.028143f, -0.067910f, -0.359268f, 0.098057f, -0.254992f, 0.243729f, 0.042799f, -0.051442f, 0.183037f, -0.036445f, 0.001253f, 0.127688f, 0.236775f, -0.224501f, -0.035216f, -0.000355f, 0.031785f, -0.104466f, 0.293595f, 0.176423f, -0.053110f, -0.115400f, 0.165675f, -0.012741f, 0.266597f, -0.057445f, -0.031151f, 0.015673f, 0.175709f, 0.022435f, 0.159197f, -0.153322f },
    { 0.102485f, -0.010108f, 0.190979f, -0.104237f, 0.166447f, -0.037773f, -0.140950f, 0.224358f, 0.182746f, -0.116510f, -0.116328f, -0.115294f, -0.104104f, 0.101171f, -0.156252f, 0.130866f, -0.195188f, 0.158791f, -0.232971f, -0.287274f, 0.001258f, -0.274141f, 0.183871f, 0.086432f, 0.133194f, 0.074235f, 0.087554f, 0.184842f, -0.082242f, 0.324906f, -0.115040f, -0.092124f },
    { -0.023733f, -0.089819f, -0.059212f, -0.272084f, 0.213129f, 0.127432f, -0.120943f, 0.212449f, -0.095389f, 0.097329f, 0.055690f, -0.004875f, 0.141669f, -0.085075f, 0.058744f, -0.193576f, -0.216426f, 0.316390f, 0.088723f, 0.014595f, 0.072485f, -0.158869f, 0.170152f, 0.062009f, -0.007439f, 0.238252f, -0.296774f, -0.118434f, -0.122480f, 0.131098f, -0.120740f, -0.065120f },
    { 0.177261f, 0.081492f, -0.122773f, -0.309086f, 0.157663f, 0.136694f, 0.191596f, 0.215525f, 0.081889f, 0.015221f, -0.273005f, 0.182222f, 0.266684f, 0.062533f, 0.056204f, 0.174076f, -0.165750f, -0.069713f, 0.059032f, -0.141635f, 0.065185f, 0.165307f, -0.067326f, -0.044927f, -0.168888f, 0.067322f, 0.093422f, -0.151222f, 0.163895f, -0.155154f, 0.201723f, -0.233124f },
    { -0.247823f, -0.162260f, 0.283321f, 0.065067f, -0.159705f, -0.148382f, -0.258204f, -0.054719f, -0.334128f, -0.029796f, 0.312740f, 0.203530f, 0.346538f, 0.191007f, 0.122867f, 0.210585f, 0.028977f, -0.146231f, 0.066994f, 0.009085f, -0.180216f, -0.127434f, -0.121392f, 0.209146f, 0.251442f, -0.057775f, 0.210701f, 0.042117f, 0.115287f, -0.352406f, -0.088384f, 0.158460f },
    { -0.208394f, 0.233987f, 0.206407f, -0.029254f, 0.033135f, -0.353554f, 0.276524f, -0.269500f, -0.144654f, 0.285727f, 0.168012f, -0.009058f, -0.266404f, 0.094908f, 0.280304f, -0.215548f, -0.142263f, -0.231597f, -0.066809f, 0.133104f, 0.161306f, 0.064074f, -0.212194f, -0.167338f, 0.185990f, -0.192446f, 0.118081f, 0.029884f, 0.419465f, 0.032674f, 0.094096f, 0.029897f }
};
const float b2_base[32] = { 0.096751f, -0.001902f, -0.037358f, -0.006277f, 0.070902f, 0.105106f, 0.079843f, 0.035923f, 0.079188f, 0.013852f, -0.070425f, 0.097867f, 0.035068f, -0.010113f, 0.107174f, 0.039672f, -0.030093f, 0.019686f, 0.103398f, 0.057150f, 0.052219f, 0.079153f, 0.052307f, 0.034648f, 0.123758f, 0.109124f, -0.065662f, -0.095913f, 0.103443f, 0.067238f, -0.025933f, -0.009950f };

const float W3_base[32][6] = {
    { -0.420315f, 0.417772f, 0.116537f, 0.476993f, -0.539536f, 0.460397f },
    { 0.317616f, 0.283337f, -0.232999f, -0.182629f, 0.328819f, 0.151210f },
    { 0.152868f, -0.129723f, -0.105418f, -0.519270f, -0.435727f, 0.132216f },
    { 0.040661f, -0.121761f, -0.486171f, -0.262965f, -0.458619f, 0.171935f },
    { -0.543661f, 0.149253f, 0.083752f, -0.526173f, -0.437282f, 0.007570f },
    { -0.170875f, 0.307487f, -0.449264f, 0.148829f, 0.420447f, -0.529938f },
    { -0.445180f, -0.131031f, -0.458756f, -0.128413f, 0.355231f, -0.107206f },
    { 0.175280f, 0.220809f, -0.542597f, 0.003941f, 0.179632f, -0.132499f },
    { 0.212991f, -0.041661f, 0.453096f, -0.050965f, 0.449434f, 0.191522f },
    { -0.367648f, 0.145340f, -0.179491f, -0.006627f, 0.267666f, 0.012862f },
    { 0.364231f, -0.262630f, 0.226850f, -0.339101f, -0.453192f, 0.298696f },
    { -0.055869f, -0.049856f, -0.459927f, 0.316365f, -0.446615f, 0.319617f },
    { 0.467073f, 0.085988f, 0.275074f, 0.267355f, 0.497129f, -0.519318f },
    { -0.040163f, 0.114370f, -0.148247f, 0.114206f, -0.108314f, -0.295964f },
    { -0.480086f, -0.270145f, 0.302416f, 0.215570f, -0.280441f, 0.220784f },
    { 0.354100f, -0.019283f, 0.419207f, 0.152874f, -0.222153f, -0.566359f },
    { -0.267440f, -0.169702f, -0.369288f, 0.008485f, 0.161691f, 0.352626f },
    { -0.355700f, 0.164019f, -0.394639f, 0.163074f, -0.007614f, -0.277050f },
    { -0.385666f, -0.273735f, -0.107426f, 0.314425f, 0.266496f, 0.311313f },
    { -0.116653f, -0.218718f, 0.342417f, 0.080004f, -0.287065f, -0.514998f },
    { -0.152879f, -0.190469f, 0.453424f, -0.175625f, -0.144881f, 0.309165f },
    { -0.248285f, -0.434885f, 0.081795f, -0.563600f, -0.303299f, 0.503782f },
    { -0.314597f, 0.150975f, -0.036353f, -0.359408f, 0.091445f, -0.218272f },
    { 0.296913f, 0.241269f, 0.424153f, 0.043065f, -0.328947f, -0.315712f },
    { -0.054665f, -0.199148f, -0.159828f, 0.342711f, -0.206530f, 0.340451f },
    { -0.060820f, 0.310449f, 0.123727f, 0.014117f, 0.068370f, 0.220835f },
    { 0.331577f, -0.405556f, -0.216372f, -0.471651f, 0.275247f, -0.248154f },
    { 0.419673f, -0.034306f, 0.172037f, 0.138496f, 0.237104f, -0.118147f },
    { 0.061582f, -0.362594f, 0.178106f, 0.417413f, -0.231436f, 0.403947f },
    { -0.387986f, 0.473312f, 0.400663f, -0.424254f, -0.222648f, -0.317352f },
    { -0.249127f, -0.211198f, 0.286583f, 0.374869f, -0.363326f, -0.254470f },
    { -0.058070f, -0.347026f, 0.158137f, 0.178280f, 0.513873f, 0.517509f }
};
const float b3_base[6] = { -0.096257f, -0.012515f, -0.106424f, 0.147052f, 0.048463f, 0.054683f };

#endif // MODEL_WEIGHTS_H
